digraph Tree {
node [shape=box, style="rounded", color="black", fontname=helvetica] ;
edge [fontname=helvetica] ;
0 [label="height <= 0.8\nmse = 30.9\nsamples = 66\nvalue = 170.6"] ;
1 [label="birth year <= 1.2\nmse = 24.7\nsamples = 48\nvalue = 168.9"] ;
0 -> 1 [labeldistance=2.5, labelangle=45, headlabel="True"] ;
2 [label="height <= -1.0\nmse = 20.5\nsamples = 45\nvalue = 168.3"] ;
1 -> 2 ;
3 [label="height <= -1.6\nmse = 33.0\nsamples = 8\nvalue = 166.0"] ;
2 -> 3 ;
4 [label="mse = 0.0\nsamples = 2\nvalue = 170.0"] ;
3 -> 4 ;
5 [label="sport <= 0.5\nmse = 37.5\nsamples = 6\nvalue = 164.0"] ;
3 -> 5 ;
6 [label="birth year <= -0.0\nmse = 2.2\nsamples = 2\nvalue = 168.5"] ;
5 -> 6 ;
7 [label="mse = 0.0\nsamples = 1\nvalue = 167.0"] ;
6 -> 7 ;
8 [label="mse = 0.0\nsamples = 1\nvalue = 170.0"] ;
6 -> 8 ;
9 [label="tallest/shortest in the family <= 0.2\nmse = 40.2\nsamples = 4\nvalue = 162.5"] ;
5 -> 9 ;
10 [label="mse = 0.0\nsamples = 1\nvalue = 151.0"] ;
9 -> 10 ;
11 [label="birth year <= -0.7\nmse = 16.6\nsamples = 3\nvalue = 164.8"] ;
9 -> 11 ;
12 [label="height <= -1.3\nmse = 12.2\nsamples = 2\nvalue = 163.5"] ;
11 -> 12 ;
13 [label="mse = 0.0\nsamples = 1\nvalue = 160.0"] ;
12 -> 13 ;
14 [label="mse = 0.0\nsamples = 1\nvalue = 167.0"] ;
12 -> 14 ;
15 [label="mse = 0.0\nsamples = 1\nvalue = 170.0"] ;
11 -> 15 ;
16 [label="birth year <= -0.9\nmse = 16.2\nsamples = 37\nvalue = 168.8"] ;
2 -> 16 ;
17 [label="birth year <= -1.0\nmse = 19.6\nsamples = 14\nvalue = 170.5"] ;
16 -> 17 ;
18 [label="height <= 0.4\nmse = 11.5\nsamples = 10\nvalue = 168.5"] ;
17 -> 18 ;
19 [label="birth year <= -1.4\nmse = 6.4\nsamples = 8\nvalue = 167.5"] ;
18 -> 19 ;
20 [label="height <= -0.3\nmse = 5.6\nsamples = 3\nvalue = 166.7"] ;
19 -> 20 ;
21 [label="tallest/shortest in the family <= 0.2\nmse = 5.6\nsamples = 2\nvalue = 168.3"] ;
20 -> 21 ;
22 [label="mse = 0.0\nsamples = 1\nvalue = 170.0"] ;
21 -> 22 ;
23 [label="mse = 0.0\nsamples = 1\nvalue = 165.0"] ;
21 -> 23 ;
24 [label="mse = 0.0\nsamples = 1\nvalue = 165.0"] ;
20 -> 24 ;
25 [label="birth year <= -1.1\nmse = 5.4\nsamples = 5\nvalue = 168.6"] ;
19 -> 25 ;
26 [label="height <= 0.2\nmse = 2.8\nsamples = 4\nvalue = 169.5"] ;
25 -> 26 ;
27 [label="tallest/shortest in the family <= 0.5\nmse = 0.9\nsamples = 3\nvalue = 168.7"] ;
26 -> 27 ;
28 [label="height <= -0.3\nmse = 1.0\nsamples = 2\nvalue = 169.0"] ;
27 -> 28 ;
29 [label="mse = 0.0\nsamples = 1\nvalue = 168.0"] ;
28 -> 29 ;
30 [label="mse = 0.0\nsamples = 1\nvalue = 170.0"] ;
28 -> 30 ;
31 [label="mse = 0.0\nsamples = 1\nvalue = 168.0"] ;
27 -> 31 ;
32 [label="mse = 0.0\nsamples = 1\nvalue = 172.0"] ;
26 -> 32 ;
33 [label="mse = 0.0\nsamples = 1\nvalue = 165.0"] ;
25 -> 33 ;
34 [label="birth year <= -1.2\nmse = 4.0\nsamples = 2\nvalue = 174.0"] ;
18 -> 34 ;
35 [label="mse = 0.0\nsamples = 1\nvalue = 176.0"] ;
34 -> 35 ;
36 [label="mse = 0.0\nsamples = 1\nvalue = 172.0"] ;
34 -> 36 ;
37 [label="height <= -0.3\nmse = 11.6\nsamples = 4\nvalue = 174.7"] ;
17 -> 37 ;
38 [label="mse = 0.0\nsamples = 2\nvalue = 178.0"] ;
37 -> 38 ;
39 [label="height <= 0.4\nmse = 0.9\nsamples = 2\nvalue = 171.3"] ;
37 -> 39 ;
40 [label="mse = 0.0\nsamples = 1\nvalue = 170.0"] ;
39 -> 40 ;
41 [label="mse = 0.0\nsamples = 1\nvalue = 172.0"] ;
39 -> 41 ;
42 [label="birth year <= -0.0\nmse = 11.8\nsamples = 23\nvalue = 167.9"] ;
16 -> 42 ;
43 [label="tallest/shortest in the family <= 0.2\nmse = 3.8\nsamples = 7\nvalue = 165.8"] ;
42 -> 43 ;
44 [label="height <= -0.5\nmse = 2.5\nsamples = 3\nvalue = 167.2"] ;
43 -> 44 ;
45 [label="mse = 0.0\nsamples = 1\nvalue = 165.0"] ;
44 -> 45 ;
46 [label="sport <= 0.5\nmse = 0.2\nsamples = 2\nvalue = 168.2"] ;
44 -> 46 ;
47 [label="mse = 0.0\nsamples = 1\nvalue = 169.0"] ;
46 -> 47 ;
48 [label="mse = 0.0\nsamples = 1\nvalue = 168.0"] ;
46 -> 48 ;
49 [label="birth year <= -0.5\nmse = 0.6\nsamples = 4\nvalue = 164.2"] ;
43 -> 49 ;
50 [label="mse = 0.0\nsamples = 2\nvalue = 165.0"] ;
49 -> 50 ;
51 [label="sport <= 0.5\nmse = 0.2\nsamples = 2\nvalue = 163.7"] ;
49 -> 51 ;
52 [label="mse = 0.0\nsamples = 1\nvalue = 163.0"] ;
51 -> 52 ;
53 [label="mse = 0.0\nsamples = 1\nvalue = 164.0"] ;
51 -> 53 ;
54 [label="tallest/shortest in the family <= 0.2\nmse = 12.8\nsamples = 16\nvalue = 168.8"] ;
42 -> 54 ;
55 [label="sport <= 0.5\nmse = 1.2\nsamples = 3\nvalue = 171.8"] ;
54 -> 55 ;
56 [label="birth year <= 0.2\nmse = 0.2\nsamples = 2\nvalue = 172.3"] ;
55 -> 56 ;
57 [label="mse = 0.0\nsamples = 1\nvalue = 173.0"] ;
56 -> 57 ;
58 [label="mse = 0.0\nsamples = 1\nvalue = 172.0"] ;
56 -> 58 ;
59 [label="mse = 0.0\nsamples = 1\nvalue = 170.0"] ;
55 -> 59 ;
60 [label="height <= 0.4\nmse = 13.0\nsamples = 13\nvalue = 168.2"] ;
54 -> 60 ;
61 [label="birth year <= 0.6\nmse = 12.5\nsamples = 11\nvalue = 168.6"] ;
60 -> 61 ;
62 [label="birth year <= 0.5\nmse = 7.4\nsamples = 4\nvalue = 170.8"] ;
61 -> 62 ;
63 [label="birth year <= 0.3\nmse = 0.9\nsamples = 2\nvalue = 168.7"] ;
62 -> 63 ;
64 [label="mse = 0.0\nsamples = 1\nvalue = 168.0"] ;
63 -> 64 ;
65 [label="mse = 0.0\nsamples = 1\nvalue = 170.0"] ;
63 -> 65 ;
66 [label="mse = 0.0\nsamples = 2\nvalue = 174.0"] ;
62 -> 66 ;
67 [label="birth year <= 0.7\nmse = 11.9\nsamples = 7\nvalue = 167.8"] ;
61 -> 67 ;
68 [label="mse = 0.0\nsamples = 1\nvalue = 165.0"] ;
67 -> 68 ;
69 [label="birth year <= 0.8\nmse = 12.1\nsamples = 6\nvalue = 169.1"] ;
67 -> 69 ;
70 [label="tallest/shortest in the family <= 0.8\nmse = 3.6\nsamples = 2\nvalue = 171.7"] ;
69 -> 70 ;
71 [label="mse = 0.0\nsamples = 1\nvalue = 173.0"] ;
70 -> 71 ;
72 [label="mse = 0.0\nsamples = 1\nvalue = 169.0"] ;
70 -> 72 ;
73 [label="height <= -0.2\nmse = 11.0\nsamples = 4\nvalue = 167.6"] ;
69 -> 73 ;
74 [label="birth year <= 0.9\nmse = 4.7\nsamples = 3\nvalue = 166.2"] ;
73 -> 74 ;
75 [label="mse = 0.0\nsamples = 1\nvalue = 165.0"] ;
74 -> 75 ;
76 [label="height <= -0.5\nmse = 6.2\nsamples = 2\nvalue = 167.5"] ;
74 -> 76 ;
77 [label="mse = 0.0\nsamples = 1\nvalue = 170.0"] ;
76 -> 77 ;
78 [label="mse = 0.0\nsamples = 1\nvalue = 165.0"] ;
76 -> 78 ;
79 [label="mse = 0.0\nsamples = 1\nvalue = 173.0"] ;
73 -> 79 ;
80 [label="birth year <= 0.7\nmse = 2.2\nsamples = 2\nvalue = 164.5"] ;
60 -> 80 ;
81 [label="mse = 0.0\nsamples = 1\nvalue = 163.0"] ;
80 -> 81 ;
82 [label="mse = 0.0\nsamples = 1\nvalue = 166.0"] ;
80 -> 82 ;
83 [label="height <= -0.1\nmse = 12.2\nsamples = 3\nvalue = 176.8"] ;
1 -> 83 ;
84 [label="tallest/shortest in the family <= 0.2\nmse = 0.8\nsamples = 2\nvalue = 178.5"] ;
83 -> 84 ;
85 [label="mse = 0.0\nsamples = 1\nvalue = 180.0"] ;
84 -> 85 ;
86 [label="mse = 0.0\nsamples = 1\nvalue = 178.0"] ;
84 -> 86 ;
87 [label="mse = 0.0\nsamples = 1\nvalue = 170.0"] ;
83 -> 87 ;
88 [label="birth year <= -0.6\nmse = 25.7\nsamples = 18\nvalue = 174.1"] ;
0 -> 88 [labeldistance=2.5, labelangle=-45, headlabel="False"] ;
89 [label="height <= 1.5\nmse = 2.8\nsamples = 6\nvalue = 169.7"] ;
88 -> 89 ;
90 [label="birth year <= -1.2\nmse = 1.0\nsamples = 5\nvalue = 169.1"] ;
89 -> 90 ;
91 [label="mse = 0.0\nsamples = 2\nvalue = 168.0"] ;
90 -> 91 ;
92 [label="mse = 0.0\nsamples = 3\nvalue = 170.0"] ;
90 -> 92 ;
93 [label="mse = 0.0\nsamples = 1\nvalue = 173.0"] ;
89 -> 93 ;
94 [label="height <= 1.9\nmse = 20.8\nsamples = 12\nvalue = 176.8"] ;
88 -> 94 ;
95 [label="height <= 1.6\nmse = 19.4\nsamples = 9\nvalue = 178.1"] ;
94 -> 95 ;
96 [label="height <= 1.2\nmse = 17.1\nsamples = 8\nvalue = 177.0"] ;
95 -> 96 ;
97 [label="birth year <= 0.6\nmse = 11.3\nsamples = 5\nvalue = 178.2"] ;
96 -> 97 ;
98 [label="birth year <= -0.0\nmse = 1.7\nsamples = 2\nvalue = 180.8"] ;
97 -> 98 ;
99 [label="mse = 0.0\nsamples = 1\nvalue = 180.0"] ;
98 -> 99 ;
100 [label="mse = 0.0\nsamples = 1\nvalue = 183.0"] ;
98 -> 100 ;
101 [label="birth year <= 1.2\nmse = 9.8\nsamples = 3\nvalue = 176.2"] ;
97 -> 101 ;
102 [label="height <= 1.0\nmse = 0.2\nsamples = 2\nvalue = 173.7"] ;
101 -> 102 ;
103 [label="mse = 0.0\nsamples = 1\nvalue = 173.0"] ;
102 -> 103 ;
104 [label="mse = 0.0\nsamples = 1\nvalue = 174.0"] ;
102 -> 104 ;
105 [label="mse = 0.0\nsamples = 1\nvalue = 180.0"] ;
101 -> 105 ;
106 [label="birth year <= 0.3\nmse = 19.2\nsamples = 3\nvalue = 174.2"] ;
96 -> 106 ;
107 [label="mse = 0.0\nsamples = 1\nvalue = 170.0"] ;
106 -> 107 ;
108 [label="height <= 1.4\nmse = 2.2\nsamples = 2\nvalue = 178.5"] ;
106 -> 108 ;
109 [label="mse = 0.0\nsamples = 1\nvalue = 180.0"] ;
108 -> 109 ;
110 [label="mse = 0.0\nsamples = 1\nvalue = 177.0"] ;
108 -> 110 ;
111 [label="mse = 0.0\nsamples = 1\nvalue = 183.0"] ;
95 -> 111 ;
112 [label="tallest/shortest in the family <= 0.2\nmse = 0.2\nsamples = 3\nvalue = 172.4"] ;
94 -> 112 ;
113 [label="mse = 0.0\nsamples = 1\nvalue = 173.0"] ;
112 -> 113 ;
114 [label="mse = 0.0\nsamples = 2\nvalue = 172.0"] ;
112 -> 114 ;
}